%YAML:1.0
my_nb: !!opencv-ml-bayesian
   var_count: 3
   var_all: 3
   cls_labels: !!opencv-matrix
      rows: 1
      cols: 2
      dt: i
      data: [ 0, 1 ]
   count:
      - !!opencv-matrix
         rows: 1
         cols: 3
         dt: i
         data: [ 141638, 141638, 141638 ]
      - !!opencv-matrix
         rows: 1
         cols: 3
         dt: i
         data: [ 6264, 6264, 6264 ]
   sum:
      - !!opencv-matrix
         rows: 1
         cols: 3
         dt: d
         data: [ 1.9761261512494087e+05, 2.1566701168549061e+05,
             2.1510976462280750e+05 ]
      - !!opencv-matrix
         rows: 1
         cols: 3
         dt: d
         data: [ 1.2314165052533150e+04, 1.1056812003850937e+04,
             8.4762197514772415e+03 ]
   productsum:
      - !!opencv-matrix
         rows: 3
         cols: 3
         dt: d
         data: [ 2.7757159427278518e+05, 3.0167565205753129e+05,
             3.0199610295001342e+05, 3.0167565205753129e+05,
             3.3073006189820648e+05, 3.2816961072662467e+05,
             3.0199610295001342e+05, 3.2816961072662467e+05,
             3.2890931337731570e+05 ]
      - !!opencv-matrix
         rows: 3
         cols: 3
         dt: d
         data: [ 2.4209199545575360e+04, 2.1741199625521789e+04,
             1.6653637166027242e+04, 2.1741199625521789e+04,
             1.9562662477436690e+04, 1.4907619335680954e+04,
             1.6653637166027242e+04, 1.4907619335680954e+04,
             1.1566387424820859e+04 ]
   avg:
      - !!opencv-matrix
         rows: 1
         cols: 3
         dt: d
         data: [ 1.3951948991438801e+00, 1.5226634920394992e+00,
             1.5187291872435893e+00 ]
      - !!opencv-matrix
         rows: 1
         cols: 3
         dt: d
         data: [ 1.9658628755640406e+00, 1.7651360159404432e+00,
             1.3531640727134804e+00 ]
   inv_eigen_values:
      - !!opencv-matrix
         rows: 1
         cols: 3
         dt: d
         data: [ 3.2184265887409879e+01, 7.5469557809978696e+01,
             9.8677451056893312e+02 ]
      - !!opencv-matrix
         rows: 1
         cols: 3
         dt: d
         data: [ 4.7490926568075011e+01, 5.3942810765386957e+02,
             2.0325786894482659e+04 ]
   cov_rotate_mats:
      - !!opencv-matrix
         rows: 3
         cols: 3
         dt: d
         data: [ 6.1786778133459541e-01, 4.3404506068831883e-01,
             6.5562511397958056e-01, -2.3373004169842243e-01,
             8.9752595653604783e-01, -3.7392168291195144e-01,
             -7.5073941710577474e-01, 7.7794875384725223e-02,
             6.5600174158881353e-01 ]
      - !!opencv-matrix
         rows: 3
         cols: 3
         dt: d
         data: [ -8.1401291809436310e-02, -5.3387289523938564e-01,
             8.4163742871884628e-01, 7.2672787452601362e-02,
             -8.4537130586687981e-01, -5.2921264268797996e-01,
             9.9402841793161223e-01, 1.8085545212751460e-02,
             1.0761234779863091e-01 ]
   c: !!opencv-matrix
      rows: 1
      cols: 2
      dt: d
      data: [ -1.4689648617150768e+01, -2.0070693840894712e+01 ]
