%YAML:1.0
my_nb: !!opencv-ml-bayesian
   var_count: 3
   var_all: 3
   cls_labels: !!opencv-matrix
      rows: 1
      cols: 2
      dt: i
      data: [ 0, 1 ]
   count:
      - !!opencv-matrix
         rows: 1
         cols: 3
         dt: i
         data: [ 113286, 113286, 113286 ]
      - !!opencv-matrix
         rows: 1
         cols: 3
         dt: i
         data: [ 2072, 2072, 2072 ]
   sum:
      - !!opencv-matrix
         rows: 1
         cols: 3
         dt: d
         data: [ 1.7127814060938358e+05, 1.7838004637277126e+05,
             1.7311481130111217e+05 ]
      - !!opencv-matrix
         rows: 1
         cols: 3
         dt: d
         data: [ 3.9618001163005829e+03, 4.0027177584171295e+03,
             3.6395884313583374e+03 ]
   productsum:
      - !!opencv-matrix
         rows: 3
         cols: 3
         dt: d
         data: [ 2.6618135250149720e+05, 2.7341087614793086e+05,
             2.6433605196186015e+05, 2.7341087614793086e+05,
             2.8542561496410018e+05, 2.7483079493053351e+05,
             2.6433605196186015e+05, 2.7483079493053351e+05,
             2.6893503529422596e+05 ]
      - !!opencv-matrix
         rows: 3
         cols: 3
         dt: d
         data: [ 7.5785966881148142e+03, 7.6560535365780870e+03,
             6.9305346807247679e+03, 7.6560535365780870e+03,
             7.7345404808554831e+03, 7.0088043876430183e+03,
             6.9305346807247679e+03, 7.0088043876430183e+03,
             6.6393030033592277e+03 ]
   avg:
      - !!opencv-matrix
         rows: 1
         cols: 3
         dt: d
         data: [ 1.5119091556713413e+00, 1.5745992123719723e+00,
             1.5281218447214322e+00 ]
      - !!opencv-matrix
         rows: 1
         cols: 3
         dt: d
         data: [ 1.9120656931952620e+00, 1.9318135899696571e+00,
             1.7565581232424408e+00 ]
   inv_eigen_values:
      - !!opencv-matrix
         rows: 1
         cols: 3
         dt: d
         data: [ 9.8614329740095599e+00, 3.9776293749891146e+01,
             6.1847798636213895e+01 ]
      - !!opencv-matrix
         rows: 1
         cols: 3
         dt: d
         data: [ 8.2352298568972717e+00, 3.5004666265327985e+04,
             8.2174470489350104e+04 ]
   cov_rotate_mats:
      - !!opencv-matrix
         rows: 3
         cols: 3
         dt: d
         data: [ 7.2775214289591628e-01, 5.3039781226513716e-01,
             4.3480452993817631e-01, -5.2359697885795886e-01,
             2.0200409878048546e-02, 8.5172656831378513e-01,
             4.4297067876014107e-01, -8.4750817352112606e-01,
             2.9241558367102227e-01 ]
      - !!opencv-matrix
         rows: 3
         cols: 3
         dt: d
         data: [ -1.1496909027295171e-01, -8.9253635364586220e-02,
             9.8935125049499761e-01, -8.6975446924947242e-01,
             -4.7211048731460287e-01, -1.4366228102092962e-01,
             4.7990548184239185e-01, -8.7700939353109186e-01,
             -2.3350635020231828e-02 ]
   c: !!opencv-matrix
      rows: 1
      cols: 2
      dt: d
      data: [ -1.0096579096737354e+01, -2.3888257883699591e+01 ]
